digraph Tree {
node [shape=box, style="filled", color="black"] ;
0 [label="proline <= 900.5\ngini = 0.433\nsamples = 123\nvalue = [84, 39]\nclass = 0", fillcolor="#f1bc95"] ;
1 [label="proline <= 730.0\ngini = 0.16\nsamples = 91\nvalue = [83, 8]\nclass = 0", fillcolor="#e88d4c"] ;
0 -> 1 [labeldistance=2.5, labelangle=45, headlabel="True"] ;
2 [label="proline <= 679.0\ngini = 0.027\nsamples = 74\nvalue = [73, 1]\nclass = 0", fillcolor="#e5833c"] ;
1 -> 2 ;
3 [label="gini = 0.0\nsamples = 65\nvalue = [65, 0]\nclass = 0", fillcolor="#e58139"] ;
2 -> 3 ;
4 [label="flavanoids <= 2.4\ngini = 0.198\nsamples = 9\nvalue = [8, 1]\nclass = 0", fillcolor="#e89152"] ;
2 -> 4 ;
5 [label="gini = 0.0\nsamples = 7\nvalue = [7, 0]\nclass = 0", fillcolor="#e58139"] ;
4 -> 5 ;
6 [label="colorIntensity <= 3.505\ngini = 0.5\nsamples = 2\nvalue = [1, 1]\nclass = 0", fillcolor="#ffffff"] ;
4 -> 6 ;
7 [label="gini = 0.0\nsamples = 1\nvalue = [1, 0]\nclass = 0", fillcolor="#e58139"] ;
6 -> 7 ;
8 [label="gini = 0.0\nsamples = 1\nvalue = [0, 1]\nclass = 1", fillcolor="#399de5"] ;
6 -> 8 ;
9 [label="flavanoids <= 2.275\ngini = 0.484\nsamples = 17\nvalue = [10, 7]\nclass = 0", fillcolor="#f7d9c4"] ;
1 -> 9 ;
10 [label="gini = 0.0\nsamples = 10\nvalue = [10, 0]\nclass = 0", fillcolor="#e58139"] ;
9 -> 10 ;
11 [label="gini = 0.0\nsamples = 7\nvalue = [0, 7]\nclass = 1", fillcolor="#399de5"] ;
9 -> 11 ;
12 [label="colorIntensity <= 3.575\ngini = 0.061\nsamples = 32\nvalue = [1, 31]\nclass = 1", fillcolor="#3fa0e6"] ;
0 -> 12 [labeldistance=2.5, labelangle=-45, headlabel="False"] ;
13 [label="gini = 0.0\nsamples = 1\nvalue = [1, 0]\nclass = 0", fillcolor="#e58139"] ;
12 -> 13 ;
14 [label="gini = 0.0\nsamples = 31\nvalue = [0, 31]\nclass = 1", fillcolor="#399de5"] ;
12 -> 14 ;
}